SNNS network definition file V1.4-3D
generated at Sun Oct 20 19:58:09 2013

network name : Music
source files :
no. of units : 28
no. of connections : 192
no. of unit types : 0
no. of site types : 0


learning function : Std_Backpropagation
update function   : Topological_Order


unit default section :

act      | bias     | st | subnet | layer | act func     | out func
---------|----------|----|--------|-------|--------------|-------------
 0.00000 |  0.00000 | h  |      0 |     1 | Act_Logistic | Out_Identity 
---------|----------|----|--------|-------|--------------|-------------


unit definition section :

no. | typeName | unitName | act      | bias     | st | position | act func | out func | sites
----|----------|----------|----------|----------|----|----------|----------|----------|-------
  1 |          | noName   |  0.00000 | -0.99750 | i  |  1, 1, 1 | Act_TanH |          | 
  2 |          | noName   |  0.00000 |  0.12717 | i  |  2, 1, 1 | Act_TanH |          | 
  3 |          | noName   |  0.00000 | -0.61339 | i  |  3, 1, 1 | Act_TanH |          | 
  4 |          | noName   |  0.00000 |  0.61748 | i  |  4, 1, 1 | Act_TanH |          | 
  5 |          | noName   |  0.00000 |  0.17002 | i  |  5, 1, 1 | Act_TanH |          | 
  6 |          | noName   |  0.00000 | -0.04025 | i  |  6, 1, 1 | Act_TanH |          | 
  7 |          | noName   |  0.00000 | -0.29942 | i  |  7, 1, 1 | Act_TanH |          | 
  8 |          | noName   |  0.00000 |  0.79192 | i  |  8, 1, 1 | Act_TanH |          | 
  9 |          | noName   |  0.70969 |  0.88656 | h  |  0, 3, 1 | Act_TanH |          | 
 10 |          | noName   | -0.28950 | -0.29802 | h  |  1, 3, 1 | Act_TanH |          | 
 11 |          | noName   |  0.09979 |  0.10012 | h  |  2, 3, 1 | Act_TanH |          | 
 12 |          | noName   |  0.20532 |  0.20828 | h  |  3, 3, 1 | Act_TanH |          | 
 13 |          | noName   |  0.28793 |  0.29631 | h  |  4, 3, 1 | Act_TanH |          | 
 14 |          | noName   |  0.78084 |  1.04752 | h  |  5, 3, 1 | Act_TanH |          | 
 15 |          | noName   |  0.15404 |  0.15528 | h  |  6, 3, 1 | Act_TanH |          | 
 16 |          | noName   |  0.42418 |  0.45278 | h  |  7, 3, 1 | Act_TanH |          | 
 17 |          | noName   |  0.25817 |  0.26415 | h  |  8, 3, 1 | Act_TanH |          | 
 18 |          | noName   |  0.72338 |  0.91471 | h  |  9, 3, 1 | Act_TanH |          | 
 19 |          | noName   |  0.02953 |  0.02954 | h  | 10, 3, 1 | Act_TanH |          | 
 20 |          | noName   | -0.63929 | -0.75698 | h  | 11, 3, 1 | Act_TanH |          | 
 21 |          | noName   |  0.00302 |  0.49356 | o  |  1, 5, 1 | Act_TanH |          | 
 22 |          | noName   | -0.00779 | -0.20028 | o  |  2, 5, 1 | Act_TanH |          | 
 23 |          | noName   | -0.06271 |  0.47766 | o  |  3, 5, 1 | Act_TanH |          | 
 24 |          | noName   | -0.07526 |  0.45953 | o  |  4, 5, 1 | Act_TanH |          | 
 25 |          | noName   | -0.01744 | -0.58472 | o  |  5, 5, 1 | Act_TanH |          | 
 26 |          | noName   |  0.03083 | -0.62742 | o  |  6, 5, 1 | Act_TanH |          | 
 27 |          | noName   | -0.04963 |  0.07361 | o  |  7, 5, 1 | Act_TanH |          | 
 28 |          | noName   |  0.03592 |  0.96178 | o  |  8, 5, 1 | Act_TanH |          | 
----|----------|----------|----------|----------|----|----------|----------|----------|-------


connection definition section :

target | site | source:weight
-------|------|---------------------------------------------------------------------------------------------------------------------
     9 |      |  1:-0.84845,  2:-0.98258,  3:-0.38235,  4: 0.14971,  5: 0.43066,  6: 0.64506,  7:-0.77383,  8: 0.37116
    10 |      |  1:-0.20085,  2:-0.92626,  3:-0.91066,  4:-0.65207,  5:-0.02862,  6: 1.02920,  7:-0.63050,  8:-0.66767
    11 |      |  1:-0.87554,  2:-0.29217,  3:-0.10305,  4: 0.28110,  5:-0.67216,  6: 0.23925,  7: 0.24606,  8: 0.18490
    12 |      |  1: 0.81955,  2: 0.87305,  3: 0.40027,  4: 0.68839,  5:-0.44918,  6:-0.00154,  7: 0.56946,  8: 0.53089
    13 |      |  1: 0.96333,  2: 0.60867,  3: 0.40735,  4:-0.94560,  5: 0.57252,  6:-0.51533,  7: 0.03344,  8:-0.60604
    14 |      |  1:-0.75290,  2:-0.18401,  3:-0.87595,  4: 0.72443,  5:-0.32888,  6:-0.37362,  7:-0.10856,  8: 0.32956
    15 |      |  1: 0.60846,  2: 0.29394,  3: 0.04694,  4:-0.64044,  5:-0.57711,  6: 0.76038,  7:-1.03227,  8:-0.93742
    16 |      |  1:-0.95956,  2: 0.30498,  3: 0.67812,  4:-0.21630,  5:-0.28327,  6: 0.22107,  7:-0.88966,  8:-0.33050
    17 |      |  1:-0.04709,  2:-0.42732,  3:-0.53141,  4:-0.08875,  5: 0.31029,  6: 0.35363,  7: 0.59254,  8:-0.10701
    18 |      |  1:-0.82802,  2: 0.04830,  3: 0.41353,  4:-0.50013,  5:-0.20997,  6: 0.54861,  7: 0.99626,  8: 0.05049
    19 |      |  1:-0.13831,  2:-0.39950,  3: 0.36118,  4: 0.71080,  5:-0.74145,  6: 0.93065,  7:-0.64058,  8: 0.07404
    20 |      |  1:-0.68950,  2:-0.68768,  3: 0.05146,  4: 0.44141,  5: 0.64187,  6:-0.73267,  7: 0.36814,  8: 0.93500
    21 |      |  9:-0.77583, 10: 0.16197, 11: 0.45414, 12: 0.29921, 13: 0.26567, 14: 0.00692, 15:-0.35703, 16:-0.19852, 17: 0.43492,
                18:-0.04815, 19:-0.71178, 20:-0.00168
    22 |      |  9:-0.22515, 10: 0.03230, 11:-0.33507, 12: 0.00915, 13: 0.79825, 14: 0.74888, 15:-0.73970, 16:-0.05971, 17: 0.30097,
                18: 0.12495, 19:-0.90012, 20: 0.66268
    23 |      |  9:-0.23552, 10:-0.25395, 11: 0.55189, 12: 0.60056, 13:-0.57203, 14:-0.25529, 15: 0.32044, 16:-0.48086, 17: 0.79733,
                18:-0.55596, 19:-0.07929, 20:-0.14408
    24 |      |  9:-0.97799, 10: 0.76145, 11:-0.62541, 12: 0.26211, 13: 0.24539, 14: 0.36440, 15:-0.74281, 16:-0.08574, 17:-0.93827,
                18:-0.02187, 19: 0.83219, 20:-0.65266
    25 |      |  9:-0.34328, 10: 0.50858, 11: 0.21904, 12: 0.38818, 13: 0.63027, 14: 0.57104, 15:-0.58230, 16:-0.11640, 17:-0.42775,
                18: 0.99193, 19:-0.27357, 20: 0.36096
    26 |      |  9: 0.22363, 10: 0.01862, 11:-0.19216, 12:-0.26912, 13:-0.69490, 14: 0.09850, 15:-1.01357, 16:-0.59798, 17: 0.59932,
                18: 0.62148, 19:-0.80755, 20:-0.83198
    27 |      |  9: 0.04230, 10:-0.54085, 11: 0.27991, 12:-0.07802, 13: 0.09104, 14:-0.52950, 15:-0.03866, 16:-0.28318, 17: 0.37665,
                18:-0.58297, 19:-0.15303, 20:-0.81420
    28 |      |  9:-0.26462, 10:-0.85604, 11: 0.17223, 12:-0.72934, 13: 1.03004, 14:-0.30015, 15: 0.67905, 16:-0.77907, 17:-0.19707,
                18:-0.45364, 19: 0.54567, 20: 0.51107
-------|------|---------------------------------------------------------------------------------------------------------------------


layer definition section :

layer | unitNo.
------|----------------------------------------------------------------------------------------------------------------------------
    2 |  9, 10, 11, 12, 13, 14, 15, 16, 17, 18, 19, 20
    3 | 21, 22, 23, 24, 25, 26, 27, 28
------|----------------------------------------------------------------------------------------------------------------------------
